[
    {
        "type": "Dense",
        "W": [
            [
                0.006168243465703921,
                0.061228628507280676,
                -0.11128431279176013,
                -0.3115565043549215,
                -0.32178285048111877,
                0.4876752024604374
            ],
            [
                -0.1087350039953408,
                0.2945350080922574,
                -0.3601962847334496,
                -0.07305870737684192,
                -0.5101073971138554,
                0.2110708417046224
            ],
            [
                -0.32128822808706464,
                -0.3050153130452287,
                -0.41684139944156795,
                0.4236241566213909,
                -0.29306860733248824,
                0.5806980777700094
            ],
            [
                -0.16272197989982495,
                -0.12471318975538834,
                0.2545011537696748,
                0.32132408116031025,
                -0.22500045491004086,
                0.20427455674268102
            ],
            [
                0.3501686097426801,
                -0.031182889012424348,
                -0.3897798859373935,
                -0.12188859598857002,
                0.015821470941479374,
                -0.13872005565558365
            ],
            [
                -0.4235350184259411,
                -0.1893023547023312,
                0.4439408519613824,
                0.06568789696465814,
                0.1423023679606671,
                0.3812848027520695
            ],
            [
                0.014313390970765122,
                -0.08524284653965632,
                -0.2494567346114594,
                0.012504792857544146,
                0.3500254479175585,
                0.5475595987631067
            ],
            [
                0.35105626564055564,
                -0.10537862220209011,
                -0.3032326344076386,
                -0.4129825196094116,
                -0.19603293603801952,
                0.29343788448710717
            ],
            [
                -0.20430127907928178,
                0.2291221060233736,
                -0.14497051864451455,
                -0.43969257788274735,
                -0.23744189465861157,
                0.22856240122261026
            ],
            [
                0.1695792695754555,
                0.009112672757985291,
                0.4513595201671239,
                0.039942438869403504,
                0.09272852474256729,
                0.016322352440955493
            ],
            [
                0.07383874233233989,
                0.21076593692389597,
                0.28617244175316753,
                0.0797126505299361,
                -0.49575013923453654,
                0.4058837579884258
            ],
            [
                -0.29112373951500026,
                -0.447262475783893,
                0.3230196918263791,
                0.1706134727398064,
                0.04597076311277981,
                -0.05042728714492273
            ],
            [
                0.24366856667711217,
                0.20543721901188972,
                -0.24259519804236188,
                0.2272292441272507,
                -0.2637092430936024,
                0.36311991531586835
            ],
            [
                0.004378772081832396,
                -0.2967083891002681,
                -0.1312852613334708,
                -0.01980331170021309,
                -0.409230418687005,
                -0.2827145079489938
            ],
            [
                -0.19342176411171116,
                -0.024282872845149437,
                0.2378731022144166,
                -0.07256836824711195,
                -0.1085116741252598,
                0.2248500319752544
            ],
            [
                -0.44976278457806185,
                0.1238119228587214,
                0.3795015470868311,
                0.17037652209765156,
                -0.2813167837498822,
                -0.009114785002455977
            ],
            [
                -0.23425044431794323,
                -0.285855909868346,
                0.3791565314160592,
                -0.4005592660268857,
                -0.1560850094870201,
                -0.051109569450706965
            ],
            [
                -0.33431730971528834,
                -0.10765124842535781,
                -0.13317116395097844,
                0.35938355298212726,
                -0.28794734867547833,
                -0.13307674777934633
            ],
            [
                -0.3697934247800843,
                0.2650322215968505,
                -0.014396638213074676,
                0.2367323266691371,
                -0.04644042566489205,
                0.32120327384684355
            ],
            [
                -0.39786233096870277,
                0.3677114718089085,
                0.055287562379612125,
                -0.3074211723583578,
                -0.11498021888762969,
                0.06566338254028371
            ],
            [
                0.21491566910613177,
                -0.3959414091117473,
                0.02067004948289421,
                -0.3638936991594025,
                -0.20080607173810355,
                0.09472397312065992
            ],
            [
                0.33641270437097065,
                -0.484046925160135,
                -0.4692125072867162,
                0.14732832537371107,
                -0.08569385851392473,
                0.3071285506852252
            ],
            [
                0.3229103663842385,
                -0.3983047809399729,
                0.1671205287745035,
                -0.059672348159956534,
                0.013439396807873177,
                0.3190258847023902
            ],
            [
                -0.21759037873000472,
                -0.4654711538625626,
                0.1218517133270478,
                -0.33623720612218416,
                0.07984291060434548,
                0.4061287181988786
            ],
            [
                0.032603375441269046,
                -0.057151085300906665,
                -0.3623264656217016,
                0.3168183670170066,
                -0.5067790861211787,
                -0.011611417957524002
            ],
            [
                0.2205775329357263,
                0.26126455783362384,
                0.08539836994090526,
                -0.27615216497038375,
                -0.43347295209772246,
                -0.23989881077700193
            ],
            [
                -0.2900209588632472,
                -0.5216741072367295,
                0.19700996272979843,
                -0.4797524345274077,
                0.02850314375774337,
                -0.0030674807348282027
            ],
            [
                -0.32662584709740794,
                0.045926183730603344,
                0.305729239638123,
                -0.3975026803202442,
                0.18762798395162397,
                0.4519663341764787
            ],
            [
                -0.021831305287580923,
                -0.09162502588022482,
                0.0050917663651660295,
                0.2412000009991359,
                -0.05909848071195138,
                0.09114409806516158
            ],
            [
                -0.09277711167674131,
                -0.02326361169409324,
                0.12513995538776726,
                0.1240434648192304,
                -0.27133598941641096,
                0.4194728548558512
            ]
        ],
        "b": [
            [
                -0.017947867547327225,
                0.20873387565317095,
                0.09388333954634531,
                -0.020977369044945276,
                0.17397611730590046,
                0.10213347976082958
            ]
        ]
    },
    {
        "type": "ReLU"
    },
    {
        "type": "Dense",
        "W": [
            [
                0.02571971531086811,
                0.22508142223870017,
                -0.47036882507207073,
                -0.38154519853554364,
                0.07018416046233583,
                -0.8051227818548314,
                0.44157428324603865,
                0.9046080197770435
            ],
            [
                0.6120961402934563,
                -0.7129463675590831,
                0.8626539409921374,
                0.9232840136067628,
                -0.802439617813668,
                0.011687202316837508,
                -0.9352451713870602,
                0.802224709408969
            ],
            [
                1.0001037754222273,
                0.5020499607347131,
                -0.7188431152686753,
                -0.9273203286952276,
                0.5208184146685663,
                0.5535806999954359,
                -0.7305994508408323,
                -0.21385639456419234
            ],
            [
                0.4184532453099524,
                0.34170660392671093,
                0.40339462694064504,
                -0.7089977358283993,
                -0.6706158501995988,
                0.24672050157613304,
                0.3052600092711402,
                -0.3308072091869969
            ],
            [
                0.9120302663294901,
                -0.6341196609141195,
                0.6808065844513451,
                0.3894166565658802,
                0.4351886829663803,
                0.4350606035994867,
                -0.9775034051205216,
                0.12681289300156057
            ],
            [
                -0.09256479500406298,
                -0.4712737887745627,
                -0.6496285447012514,
                -0.9131105002873046,
                1.1347160038929398,
                -0.5171771316374041,
                -0.7528205304457144,
                -0.12083015994117707
            ]
        ],
        "b": [
            [
                -0.04338423594920859,
                -0.011286906070432656,
                0.09600552832965387,
                0.07549427191903829,
                0.1820719755967434,
                0.15137695064813933,
                0.01325780824531582,
                0.026890488502993467
            ]
        ]
    },
    {
        "type": "ReLU"
    },
    {
        "type": "Dense",
        "W": [
            [
                0.01949756895408667,
                -0.583528505105069,
                0.32315308003410415,
                0.8248431380873942,
                0.10719702312106026,
                -0.7980725231358459,
                0.8411109563012206,
                -0.7593271810142681,
                0.16171009706691028
            ],
            [
                0.35365850707741814,
                0.001723525196557718,
                -0.28286740587153836,
                -0.3647700382445517,
                -0.6949565957084551,
                -0.25868746480533383,
                0.6349768349650688,
                -0.8627657569004427,
                -0.5587957082368776
            ],
            [
                0.2464352977100316,
                -0.0023627566052450756,
                0.630902765054659,
                -0.5976999843870217,
                -0.029334251696215063,
                -0.6786876760950022,
                0.6847466571240656,
                -0.5499670886790375,
                -0.1460696762506146
            ],
            [
                0.4006362644324361,
                0.5444469385031654,
                0.28927226863851435,
                0.6255182015623123,
                0.5081818039959978,
                0.6455587308017608,
                0.5075132735969389,
                0.8140967834572013,
                -0.26977412162541914
            ],
            [
                -0.45744432261603624,
                -0.8074033237989221,
                -0.31869073618494,
                -0.6612166556909663,
                -0.00897741650477898,
                0.8712680402521776,
                -0.01741993108510155,
                -0.5226592322858938,
                0.48819368599006036
            ],
            [
                0.7313899213286181,
                -0.287601150720349,
                0.8502054176895655,
                -0.3785533257136176,
                -0.8012355382803378,
                -0.21400505398735242,
                0.7065361134058675,
                -0.4707766344335049,
                -0.10175141038465561
            ],
            [
                -0.7460315456265888,
                -0.5023223457524453,
                -0.25692701997771167,
                -0.5225142084801138,
                0.5270758419528294,
                -0.48750012907550416,
                -0.27703181481266653,
                0.17106522376251232,
                -0.5884698450272476
            ],
            [
                0.29203168299636095,
                -0.21377697437779547,
                0.24273795157703848,
                0.7569363008420757,
                -0.6279210625639448,
                0.8566794366321333,
                -0.3574963080302507,
                -0.24787150277006853,
                0.7255167005716272
            ]
        ],
        "b": [
            [
                0.050437883469920224,
                -0.00013968995006069916,
                0.03188257437892362,
                0.009408785850157569,
                -0.06272453673302168,
                0.240675910375381,
                0.027444985458393308,
                0.0,
                0.07351041913791831
            ]
        ]
    },
    {
        "type": "ReLU"
    },
    {
        "type": "Dense",
        "W": [
            [
                -0.5085908372791589,
                0.30441158428385023
            ],
            [
                -0.38940422545398024,
                0.07392277716227272
            ],
            [
                -0.8599377109656103,
                -0.46954435657543214
            ],
            [
                0.2502635397792737,
                0.3277404193019284
            ],
            [
                -0.7826396258273354,
                -0.10516888971253267
            ],
            [
                0.5738187465197188,
                -0.6138275364423226
            ],
            [
                -0.2084582671171323,
                0.9499521167626234
            ],
            [
                0.17434253206759642,
                -0.7861600386851355
            ],
            [
                0.8792009820884892,
                0.15793489833882154
            ]
        ],
        "b": [
            [
                0.1526984210030328,
                -0.15269842100303274
            ]
        ]
    },
    {
        "type": "Softmax"
    }
]