[
    {
        "type": "Dense",
        "W": [
            [
                -0.4480692369466941,
                0.261690568891069,
                -0.060042713494954394,
                0.3416337382161037,
                -0.23019228423111154,
                0.23508078260604334
            ],
            [
                0.2877770353911932,
                0.46599218700192097,
                0.04379747971638673,
                -0.02363897475470873,
                -0.08762283057016619,
                0.2990348322842926
            ],
            [
                -0.19681252838931187,
                0.023510050969802843,
                -0.1933726096579519,
                0.09578616283656406,
                -0.49006166388696365,
                0.2371576734888811
            ],
            [
                0.29967221098038543,
                -0.36816698573350537,
                -0.22605593113818948,
                -0.05073711055128533,
                -0.12446542532065545,
                0.03874485477208774
            ],
            [
                -0.3450873982068486,
                0.1427268369144443,
                -0.07880786779999661,
                0.1078637300035237,
                0.21319334505002988,
                -0.011122181657585935
            ],
            [
                0.2658050826751198,
                0.06019565801420019,
                0.011533278773381742,
                -0.39670238451178835,
                -0.016672973675589817,
                0.1783859176396825
            ],
            [
                0.13196548690116763,
                0.4556751171037864,
                -0.462277861953338,
                0.12359380461599678,
                0.19932733346241688,
                0.49823902952376503
            ],
            [
                0.0702491064378917,
                0.30550423641156643,
                0.25080558228794914,
                0.04526067265205813,
                -0.00034857571055733227,
                0.5858557269004981
            ],
            [
                0.12243693144519435,
                -0.3798226262981852,
                0.36851665189596705,
                -0.22249966143854205,
                -0.1414948515640512,
                -0.2052993988088992
            ],
            [
                -0.2820535573261762,
                -0.09914258321039951,
                -0.3988097238634482,
                0.19422494456300113,
                0.20375475426503697,
                -0.31812966847626073
            ],
            [
                -0.15137444722601825,
                -0.309365064018096,
                0.06427043652430636,
                0.16271357355480168,
                -0.3517079725347958,
                0.42367812060239823
            ],
            [
                -0.2135632133352859,
                0.23061600708640628,
                0.42923231878551543,
                0.0062969141226384565,
                -0.33336527686706263,
                -0.1491914312790433
            ],
            [
                0.12290474422371764,
                -0.02071137055496056,
                -0.3782232398193688,
                -0.40329963941165003,
                -0.48716800139448235,
                -0.04445808784578961
            ],
            [
                -0.46378093215661476,
                0.3348590717390796,
                -0.3599227748246574,
                0.2967379638651827,
                0.05635921674136655,
                0.038076739131261646
            ],
            [
                -0.09659136742860143,
                0.08615979953798429,
                -0.08407462448635683,
                -0.46640765473611884,
                0.3097466708488963,
                0.3485933941478194
            ],
            [
                -0.11587263896026397,
                0.11306638764396183,
                0.19573865135457943,
                0.019694004543517527,
                0.2684977257801818,
                -0.20331584717679002
            ],
            [
                -0.17024343823728003,
                0.4669157737086409,
                -0.024760378210565787,
                -0.0796017808082361,
                0.41146494611287054,
                0.2771370783560423
            ],
            [
                -0.04026500417884364,
                0.1637985793148967,
                -0.27804529712169634,
                -0.019471350671377757,
                0.2981468716963511,
                -0.0518512958941072
            ],
            [
                -0.29816565456593236,
                0.1714104073318364,
                -0.39691593676701503,
                0.0711435125175695,
                -0.24974362253708893,
                0.015287680759137983
            ],
            [
                0.1331535209533986,
                0.18807321832106902,
                -0.2654889164832777,
                -0.40545726305160906,
                -0.08089326407245763,
                -0.15451569044735977
            ],
            [
                -0.44014695305420876,
                0.05404547459227971,
                -0.4331747934966126,
                -0.26976758294760367,
                -0.27011087813306794,
                0.5368224658057389
            ],
            [
                -0.06732391874728372,
                0.4391280951460074,
                -0.42460199609914717,
                0.3693693258176525,
                0.16440891191013246,
                0.3113039933365837
            ],
            [
                -0.4322068142314203,
                -0.2436201750079146,
                0.02458030505659578,
                0.10604432535822579,
                0.12043983687909152,
                0.39416687903291375
            ],
            [
                0.2926851440973258,
                -0.37560285780220215,
                0.18371803631036437,
                -0.376461405996888,
                -0.47621903925795267,
                0.19310555027340276
            ],
            [
                0.2054430095917491,
                -0.2752701586031549,
                -0.04623500658759274,
                0.22870617940487833,
                -0.3676245500700491,
                -0.11466139956566787
            ],
            [
                -0.18918999695185962,
                0.35166805763859016,
                -0.20458410956259648,
                -0.25876195233478827,
                -0.03738792883191521,
                0.10482500441276446
            ],
            [
                -0.31642612758530625,
                0.24685826775129235,
                -0.21307688894126872,
                0.3298179081344291,
                -0.0803012239298293,
                0.1252030986915146
            ],
            [
                -0.35371150502513,
                -0.21789918019123478,
                -0.02057366022187808,
                0.3680785240001977,
                -0.2285234121861466,
                -0.18275462365965273
            ],
            [
                0.23164842916425601,
                -0.374840150097838,
                0.3557248449679078,
                0.21332425632895247,
                -0.05680788658799022,
                0.3383241320963767
            ],
            [
                0.16281051570118446,
                0.25119241500211936,
                -0.24539141158708894,
                0.3122211787572489,
                -0.011149546155023537,
                0.08821019726952607
            ]
        ],
        "b": [
            [
                0.12657202821422636,
                0.02707523059542994,
                0.14158172929313861,
                -0.03439472746293753,
                0.12468823798365987,
                0.14026241970095443
            ]
        ]
    },
    {
        "type": "ReLU"
    },
    {
        "type": "Dense",
        "W": [
            [
                0.8956067618550224,
                0.8135692010471066,
                0.10578892024554405,
                -0.07952617242529864,
                0.20597768998883828,
                0.2369687404222796,
                0.4608405016280062,
                0.18067596016394094
            ],
            [
                -0.6346614143108408,
                0.703387453454284,
                -0.932427579833897,
                0.8860075008982253,
                -0.7734128245243996,
                -0.6974968585282508,
                0.4911217947525781,
                -0.3327321191097182
            ],
            [
                -0.834176200370276,
                0.4513480906983726,
                0.8148898585369749,
                0.5837039093169395,
                -0.49285122877319665,
                0.2090980648094004,
                0.20333196905425513,
                0.8248928943153295
            ],
            [
                -0.9134395006419151,
                -0.902801546284751,
                -0.1018532174278039,
                0.4675656931276679,
                -0.22112974786340758,
                0.10323022367273563,
                -0.6801173034060817,
                -0.5575672443006946
            ],
            [
                0.09146786473155663,
                0.6737671981224006,
                0.8237398289340899,
                -0.5158125682346476,
                -0.9866817376513191,
                0.26532936930684053,
                0.2977839615377703,
                -0.033994231770715255
            ],
            [
                0.49049886332005127,
                -0.8828713817613921,
                -0.5467576624191143,
                0.6118131685678304,
                -0.9094376087978582,
                -0.34080448772212596,
                0.29379209830382347,
                0.4319818185427551
            ]
        ],
        "b": [
            [
                0.07102049244058327,
                0.2324514369201123,
                0.12237077571053062,
                0.12342920063076178,
                -0.0005161496356532833,
                -0.026118788608810905,
                -0.0023745320470469006,
                0.039811611783819326
            ]
        ]
    },
    {
        "type": "ReLU"
    },
    {
        "type": "Dense",
        "W": [
            [
                0.2531541155484649,
                0.5198028992115133,
                -0.02198627362925496,
                0.3480390479992753,
                0.2118960170891217,
                -0.2525218975143894,
                0.3023274229714452,
                -0.38156636603435135,
                0.8244232536255431
            ],
            [
                -0.2839308462685163,
                -0.6821670355461172,
                0.8636222030151574,
                0.6901046651011632,
                0.087704273096054,
                -0.02264632277448039,
                -0.01958528153116015,
                0.24397740226949605,
                0.817497464819732
            ],
            [
                0.7385701090450715,
                -0.11603634232856178,
                0.9856227992637497,
                -0.019250097027923713,
                -0.4880846719871423,
                -0.574367476410355,
                0.06331600079121222,
                -0.4054616613807488,
                -0.2586286538110505
            ],
            [
                0.07919632360063368,
                0.6918351674324464,
                0.006307327365906341,
                0.7238098033709259,
                -0.3583211520524846,
                -0.6227809232274696,
                -0.7120787309617699,
                -0.2242873210311871,
                -0.11094522088431925
            ],
            [
                0.7671102436516615,
                0.34038552103118713,
                0.7388614295999655,
                -0.6332038019876057,
                0.06539529345075537,
                0.005391808049742891,
                -0.35970832568556516,
                0.6235552537178237,
                0.7176050705750985
            ],
            [
                -0.6808112815112902,
                0.6408227030757,
                -0.5807813521197316,
                -0.6972122994340189,
                0.42512394520377583,
                0.820312281102008,
                0.6862254912991558,
                -0.005243488838901578,
                0.7049453146181381
            ],
            [
                0.6429048448074826,
                0.16334634517805352,
                0.05268083002585399,
                0.6454152730148098,
                -0.030900729684143743,
                0.715030416849166,
                0.30596356960624543,
                -0.6032901961025905,
                -0.23550814071146592
            ],
            [
                -0.40288394666510685,
                0.521580822523997,
                0.3059491588089241,
                0.811033230702637,
                0.8482492971001873,
                -0.6706218268357096,
                -0.09510377077086139,
                0.07991494002438748,
                0.47394371680540043
            ]
        ],
        "b": [
            [
                -0.001824348033424523,
                0.23353780472176217,
                -0.015932673183046486,
                -0.0038790184109812093,
                0.0031655589094380728,
                -0.011720134161455368,
                0.024645418491282326,
                0.0,
                -0.009035873126501405
            ]
        ]
    },
    {
        "type": "ReLU"
    },
    {
        "type": "Dense",
        "W": [
            [
                -0.5303827149443008,
                -0.5851708114209415
            ],
            [
                0.9629568735448437,
                -1.0069996619138883
            ],
            [
                -1.0316096238901762,
                0.4559879247301526
            ],
            [
                -0.4312587111437893,
                -0.4014895460019481
            ],
            [
                -0.03438523209476446,
                0.33135119701329335
            ],
            [
                0.35463145091438114,
                0.1223115658156118
            ],
            [
                -0.11459562396354699,
                0.2060651395187806
            ],
            [
                -0.45490487414382147,
                -0.46102306719079633
            ],
            [
                -0.6997799265927656,
                -0.6641436874334434
            ]
        ],
        "b": [
            [
                0.019768971729087793,
                -0.01976897172908779
            ]
        ]
    },
    {
        "type": "Softmax"
    }
]